<?xml version="1.0"?>
<opencv_storage>
<stage4>
  <maxWeakCount>22</maxWeakCount>
  <stageThreshold>-1.1523976325988770e+00</stageThreshold>
  <weakClassifiers>
    <_>
      <internalNodes>
        0 -1 758411 -1.3242575526237488e-01</internalNodes>
      <leafValues>
        7.5000000000000000e-01 -2.4582700431346893e-01</leafValues></_>
    <_>
      <internalNodes>
        0 -1 40114 -6.0618400573730469e-02</internalNodes>
      <leafValues>
        4.8812937736511230e-01 -4.4589909911155701e-01</leafValues></_>
    <_>
      <internalNodes>
        0 -1 706978 -5.1742862910032272e-02</internalNodes>
      <leafValues>
        5.3648710250854492e-01 -1.9841058552265167e-01</leafValues></_>
    <_>
      <internalNodes>
        0 -1 1124496 2.1734997630119324e-02</internalNodes>
      <leafValues>
        -2.6313763856887817e-01 3.5937169194221497e-01</leafValues></_>
    <_>
      <internalNodes>
        0 -1 514039 2.9911445453763008e-03</internalNodes>
      <leafValues>
        -2.1554493904113770e-01 4.4396245479583740e-01</leafValues></_>
    <_>
      <internalNodes>
        0 -1 700339 -6.5253283828496933e-03</internalNodes>
      <leafValues>
        3.8179045915603638e-01 -1.9397762417793274e-01</leafValues></_>
    <_>
      <internalNodes>
        0 -1 1181770 -4.0532499551773071e-03</internalNodes>
      <leafValues>
        4.9813708662986755e-01 -1.5473790466785431e-01</leafValues></_>
    <_>
      <internalNodes>
        0 -1 902983 -2.5609757751226425e-02</internalNodes>
      <leafValues>
        6.1658239364624023e-01 -9.1524019837379456e-02</leafValues></_>
    <_>
      <internalNodes>
        0 -1 1184927 5.8734621852636337e-03</internalNodes>
      <leafValues>
        -1.8124555051326752e-01 3.8601341843605042e-01</leafValues></_>
    <_>
      <internalNodes>
        0 -1 41155 -1.3824648922309279e-03</internalNodes>
      <leafValues>
        -6.2272948026657104e-01 1.2348525971174240e-01</leafValues></_>
    <_>
      <internalNodes>
        0 -1 1092040 -1.8067376222461462e-03</internalNodes>
      <leafValues>
        3.0143198370933533e-01 -2.3147191107273102e-01</leafValues></_>
    <_>
      <internalNodes>
        0 -1 39243 -2.7202966157346964e-04</internalNodes>
      <leafValues>
        -6.6096985340118408e-01 1.1854324489831924e-01</leafValues></_>
    <_>
      <internalNodes>
        0 -1 691623 3.2030842266976833e-03</internalNodes>
      <leafValues>
        -1.5065614879131317e-01 4.1372647881507874e-01</leafValues></_>
    <_>
      <internalNodes>
        0 -1 343472 -5.5978903546929359e-03</internalNodes>
      <leafValues>
        -5.3826254606246948e-01 1.2001295387744904e-01</leafValues></_>
    <_>
      <internalNodes>
        0 -1 1091717 -9.4181224703788757e-03</internalNodes>
      <leafValues>
        1.8015477061271667e-01 -3.2973271608352661e-01</leafValues></_>
    <_>
      <internalNodes>
        0 -1 569060 1.3624216429889202e-02</internalNodes>
      <leafValues>
        -1.3415184617042542e-01 4.8139834403991699e-01</leafValues></_>
    <_>
      <internalNodes>
        0 -1 702639 -9.6324607729911804e-03</internalNodes>
      <leafValues>
        5.0594848394393921e-01 -1.1490648239850998e-01</leafValues></_>
    <_>
      <internalNodes>
        0 -1 980414 -1.4492259360849857e-03</internalNodes>
      <leafValues>
        3.5707849264144897e-01 -1.7229092121124268e-01</leafValues></_>
    <_>
      <internalNodes>
        0 -1 1060697 1.0931784054264426e-03</internalNodes>
      <leafValues>
        -1.8136782944202423e-01 3.5835891962051392e-01</leafValues></_>
    <_>
      <internalNodes>
        0 -1 610925 -2.5304906070232391e-02</internalNodes>
      <leafValues>
        4.3457520008087158e-01 -1.4889524877071381e-01</leafValues></_>
    <_>
      <internalNodes>
        0 -1 984534 -5.0015319138765335e-03</internalNodes>
      <leafValues>
        4.3753740191459656e-01 -1.5099781751632690e-01</leafValues></_>
    <_>
      <internalNodes>
        0 -1 390714 -3.1066592782735825e-03</internalNodes>
      <leafValues>
        4.0559488534927368e-01 -1.7703740298748016e-01</leafValues></_></weakClassifiers></stage4>
</opencv_storage>
