<?xml version="1.0"?>
<opencv_storage>
<stage12>
  <maxWeakCount>43</maxWeakCount>
  <stageThreshold>-8.4135526418685913e-01</stageThreshold>
  <weakClassifiers>
    <_>
      <internalNodes>
        0 -1 32344 -9.8180159926414490e-02</internalNodes>
      <leafValues>
        5.2503210306167603e-01 -2.1771217882633209e-01</leafValues></_>
    <_>
      <internalNodes>
        0 -1 888026 1.3327443599700928e-01</internalNodes>
      <leafValues>
        -1.6649188101291656e-01 4.3340894579887390e-01</leafValues></_>
    <_>
      <internalNodes>
        0 -1 1038294 4.0962193161249161e-03</internalNodes>
      <leafValues>
        -1.8457847833633423e-01 3.0495703220367432e-01</leafValues></_>
    <_>
      <internalNodes>
        0 -1 1171420 9.5202252268791199e-03</internalNodes>
      <leafValues>
        -3.6696696281433105e-01 1.4106510579586029e-01</leafValues></_>
    <_>
      <internalNodes>
        0 -1 1107616 1.7245453782379627e-03</internalNodes>
      <leafValues>
        -2.2153887152671814e-01 2.3126360774040222e-01</leafValues></_>
    <_>
      <internalNodes>
        0 -1 1139781 4.9340482801198959e-03</internalNodes>
      <leafValues>
        -1.1714128404855728e-01 3.7834724783897400e-01</leafValues></_>
    <_>
      <internalNodes>
        0 -1 949638 7.1016852743923664e-03</internalNodes>
      <leafValues>
        -2.1007762849330902e-01 2.5975206494331360e-01</leafValues></_>
    <_>
      <internalNodes>
        0 -1 249171 -1.0982702672481537e-01</internalNodes>
      <leafValues>
        -6.9064009189605713e-01 7.8840672969818115e-02</leafValues></_>
    <_>
      <internalNodes>
        0 -1 235248 -2.2793563402956352e-05</internalNodes>
      <leafValues>
        -2.7645707130432129e-01 1.6488675773143768e-01</leafValues></_>
    <_>
      <internalNodes>
        0 -1 1213021 1.0168293956667185e-03</internalNodes>
      <leafValues>
        1.4938308298587799e-01 -2.9292196035385132e-01</leafValues></_>
    <_>
      <internalNodes>
        0 -1 896414 -7.3243808001279831e-03</internalNodes>
      <leafValues>
        2.7635449171066284e-01 -1.5955214202404022e-01</leafValues></_>
    <_>
      <internalNodes>
        0 -1 1027893 1.3462161645293236e-02</internalNodes>
      <leafValues>
        -1.7597723007202148e-01 2.7888375520706177e-01</leafValues></_>
    <_>
      <internalNodes>
        0 -1 1162875 1.4089860487729311e-03</internalNodes>
      <leafValues>
        5.6698366999626160e-02 -7.2335463762283325e-01</leafValues></_>
    <_>
      <internalNodes>
        0 -1 969143 8.4168612957000732e-02</internalNodes>
      <leafValues>
        4.3976444751024246e-02 -6.6602373123168945e-01</leafValues></_>
    <_>
      <internalNodes>
        0 -1 580154 -1.1933809146285057e-03</internalNodes>
      <leafValues>
        4.2910945415496826e-01 -8.6429499089717865e-02</leafValues></_>
    <_>
      <internalNodes>
        0 -1 565678 3.7374419625848532e-03</internalNodes>
      <leafValues>
        -1.1103896796703339e-01 3.4605932235717773e-01</leafValues></_>
    <_>
      <internalNodes>
        0 -1 123808 -2.3447564244270325e-01</internalNodes>
      <leafValues>
        2.2302341461181641e-01 -1.8985399603843689e-01</leafValues></_>
    <_>
      <internalNodes>
        0 -1 407924 1.0442091152071953e-03</internalNodes>
      <leafValues>
        -1.4886730909347534e-01 2.5079768896102905e-01</leafValues></_>
    <_>
      <internalNodes>
        0 -1 44593 -1.0748061351478100e-02</internalNodes>
      <leafValues>
        -7.2245728969573975e-01 4.9019515514373779e-02</leafValues></_>
    <_>
      <internalNodes>
        0 -1 1032352 -3.2388549298048019e-03</internalNodes>
      <leafValues>
        3.4945452213287354e-01 -1.1369432508945465e-01</leafValues></_>
    <_>
      <internalNodes>
        0 -1 1115081 -1.7743092775344849e-01</internalNodes>
      <leafValues>
        -7.4122488498687744e-01 5.5703181773424149e-02</leafValues></_>
    <_>
      <internalNodes>
        0 -1 178271 -4.2500053532421589e-03</internalNodes>
      <leafValues>
        -4.7343975305557251e-01 6.5712995827198029e-02</leafValues></_>
    <_>
      <internalNodes>
        0 -1 1022657 -3.5178279504179955e-03</internalNodes>
      <leafValues>
        4.6970817446708679e-01 -8.3343632519245148e-02</leafValues></_>
    <_>
      <internalNodes>
        0 -1 1213251 -6.8079290213063359e-04</internalNodes>
      <leafValues>
        -8.0071514844894409e-01 5.0844304263591766e-02</leafValues></_>
    <_>
      <internalNodes>
        0 -1 1163559 7.2162961587309837e-03</internalNodes>
      <leafValues>
        -1.3605765998363495e-01 2.4653498828411102e-01</leafValues></_>
    <_>
      <internalNodes>
        0 -1 1110027 1.9847950898110867e-03</internalNodes>
      <leafValues>
        -1.9124551117420197e-01 2.2786241769790649e-01</leafValues></_>
    <_>
      <internalNodes>
        0 -1 784603 1.2977549806237221e-02</internalNodes>
      <leafValues>
        -1.6923740506172180e-01 2.0457316935062408e-01</leafValues></_>
    <_>
      <internalNodes>
        0 -1 339297 1.9718945026397705e-02</internalNodes>
      <leafValues>
        -1.1734894663095474e-01 3.4713232517242432e-01</leafValues></_>
    <_>
      <internalNodes>
        0 -1 1063997 2.0657594723161310e-04</internalNodes>
      <leafValues>
        -1.8071776628494263e-01 1.9615875184535980e-01</leafValues></_>
    <_>
      <internalNodes>
        0 -1 1147449 3.2253055833280087e-03</internalNodes>
      <leafValues>
        6.4515151083469391e-02 -5.7138121128082275e-01</leafValues></_>
    <_>
      <internalNodes>
        0 -1 232086 -1.0944169480353594e-03</internalNodes>
      <leafValues>
        2.6461845636367798e-01 -1.3362376391887665e-01</leafValues></_>
    <_>
      <internalNodes>
        0 -1 1215671 8.6201529484242201e-04</internalNodes>
      <leafValues>
        -1.2483567744493484e-01 2.6682680845260620e-01</leafValues></_>
    <_>
      <internalNodes>
        0 -1 745770 -2.0983412396162748e-03</internalNodes>
      <leafValues>
        3.4736582636833191e-01 -8.9996345341205597e-02</leafValues></_>
    <_>
      <internalNodes>
        0 -1 12188 -9.5237419009208679e-03</internalNodes>
      <leafValues>
        2.1975913643836975e-01 -1.7957939207553864e-01</leafValues></_>
    <_>
      <internalNodes>
        0 -1 240987 2.6984345167875290e-03</internalNodes>
      <leafValues>
        -1.2947115302085876e-01 2.7761709690093994e-01</leafValues></_>
    <_>
      <internalNodes>
        0 -1 26918 -8.2994095282629132e-04</internalNodes>
      <leafValues>
        -7.4045443534851074e-01 5.1612809300422668e-02</leafValues></_>
    <_>
      <internalNodes>
        0 -1 772786 -9.9239222705364227e-02</internalNodes>
      <leafValues>
        -8.5422694683074951e-01 3.2772969454526901e-02</leafValues></_>
    <_>
      <internalNodes>
        0 -1 1154186 -1.0147284716367722e-02</internalNodes>
      <leafValues>
        2.2167572379112244e-01 -1.7038258910179138e-01</leafValues></_>
    <_>
      <internalNodes>
        0 -1 26918 6.1028543859720230e-04</internalNodes>
      <leafValues>
        5.7891622185707092e-02 -6.0456109046936035e-01</leafValues></_>
    <_>
      <internalNodes>
        0 -1 735139 -9.1512296348810196e-03</internalNodes>
      <leafValues>
        4.3175694346427917e-01 -9.1119341552257538e-02</leafValues></_>
    <_>
      <internalNodes>
        0 -1 696207 1.0550250299274921e-03</internalNodes>
      <leafValues>
        -1.3634975254535675e-01 3.1118145585060120e-01</leafValues></_>
    <_>
      <internalNodes>
        0 -1 1235095 1.6880407201824710e-05</internalNodes>
      <leafValues>
        1.3639789819717407e-01 -2.4303223192691803e-01</leafValues></_>
    <_>
      <internalNodes>
        0 -1 10703 5.2615905588027090e-06</internalNodes>
      <leafValues>
        1.5322235226631165e-01 -2.2041584551334381e-01</leafValues></_></weakClassifiers></stage12>
</opencv_storage>
