<?xml version="1.0"?>
<opencv_storage>
<stage13>
  <maxWeakCount>42</maxWeakCount>
  <stageThreshold>-8.8659352064132690e-01</stageThreshold>
  <weakClassifiers>
    <_>
      <internalNodes>
        0 -1 880334 8.9238345623016357e-02</internalNodes>
      <leafValues>
        -1.1389759927988052e-01 5.2849978208541870e-01</leafValues></_>
    <_>
      <internalNodes>
        0 -1 278241 5.9032902121543884e-02</internalNodes>
      <leafValues>
        -3.4404328465461731e-01 2.3667231202125549e-01</leafValues></_>
    <_>
      <internalNodes>
        0 -1 1156827 3.5509497392922640e-03</internalNodes>
      <leafValues>
        -2.2667442262172699e-01 2.9957845807075500e-01</leafValues></_>
    <_>
      <internalNodes>
        0 -1 707883 -2.5450613349676132e-02</internalNodes>
      <leafValues>
        2.6895830035209656e-01 -1.8451096117496490e-01</leafValues></_>
    <_>
      <internalNodes>
        0 -1 1166020 2.0212434232234955e-02</internalNodes>
      <leafValues>
        -2.8783792257308960e-01 1.8413622677326202e-01</leafValues></_>
    <_>
      <internalNodes>
        0 -1 1158677 -1.1405178345739841e-02</internalNodes>
      <leafValues>
        5.2868068218231201e-01 -1.3025885820388794e-01</leafValues></_>
    <_>
      <internalNodes>
        0 -1 402513 8.7284117937088013e-02</internalNodes>
      <leafValues>
        1.3308563828468323e-01 -4.4821229577064514e-01</leafValues></_>
    <_>
      <internalNodes>
        0 -1 489233 7.8505128622055054e-03</internalNodes>
      <leafValues>
        -1.3560625910758972e-01 3.0692982673645020e-01</leafValues></_>
    <_>
      <internalNodes>
        0 -1 360665 3.2969147432595491e-03</internalNodes>
      <leafValues>
        -1.5622821450233459e-01 2.9188850522041321e-01</leafValues></_>
    <_>
      <internalNodes>
        0 -1 1241825 2.1223276853561401e-03</internalNodes>
      <leafValues>
        9.8403580486774445e-02 -4.3728357553482056e-01</leafValues></_>
    <_>
      <internalNodes>
        0 -1 1163808 3.8317190483212471e-03</internalNodes>
      <leafValues>
        1.1656019836664200e-01 -3.7348186969757080e-01</leafValues></_>
    <_>
      <internalNodes>
        0 -1 273483 -1.4522951841354370e-01</internalNodes>
      <leafValues>
        -6.2142872810363770e-01 4.3272186070680618e-02</leafValues></_>
    <_>
      <internalNodes>
        0 -1 587624 -1.7210587393492460e-03</internalNodes>
      <leafValues>
        -3.4154975414276123e-01 1.1303916573524475e-01</leafValues></_>
    <_>
      <internalNodes>
        0 -1 947890 -1.7257910221815109e-02</internalNodes>
      <leafValues>
        3.2931262254714966e-01 -1.1807030439376831e-01</leafValues></_>
    <_>
      <internalNodes>
        0 -1 220563 -2.0950540900230408e-02</internalNodes>
      <leafValues>
        6.3934099674224854e-01 -8.0703601241111755e-02</leafValues></_>
    <_>
      <internalNodes>
        0 -1 480663 5.8344616554677486e-03</internalNodes>
      <leafValues>
        -7.9840756952762604e-02 4.7204470634460449e-01</leafValues></_>
    <_>
      <internalNodes>
        0 -1 1195702 -1.9287671893835068e-03</internalNodes>
      <leafValues>
        3.2193487882614136e-01 -1.2974740564823151e-01</leafValues></_>
    <_>
      <internalNodes>
        0 -1 1242291 1.3612930197268724e-03</internalNodes>
      <leafValues>
        8.9156903326511383e-02 -4.6259194612503052e-01</leafValues></_>
    <_>
      <internalNodes>
        0 -1 809562 1.0808804072439671e-03</internalNodes>
      <leafValues>
        -1.4772954583168030e-01 2.4604591727256775e-01</leafValues></_>
    <_>
      <internalNodes>
        0 -1 663336 2.6077302172780037e-03</internalNodes>
      <leafValues>
        -1.3082316517829895e-01 2.7583113312721252e-01</leafValues></_>
    <_>
      <internalNodes>
        0 -1 1100505 -1.2650573626160622e-02</internalNodes>
      <leafValues>
        2.0908516645431519e-01 -1.7019036412239075e-01</leafValues></_>
    <_>
      <internalNodes>
        0 -1 810532 -1.8229801207780838e-02</internalNodes>
      <leafValues>
        1.0546486824750900e-01 -3.6426550149917603e-01</leafValues></_>
    <_>
      <internalNodes>
        0 -1 1159836 6.3421581871807575e-03</internalNodes>
      <leafValues>
        -1.2234853953123093e-01 3.1143963336944580e-01</leafValues></_>
    <_>
      <internalNodes>
        0 -1 1106450 3.7325497251003981e-03</internalNodes>
      <leafValues>
        -1.0329537838697433e-01 3.7375879287719727e-01</leafValues></_>
    <_>
      <internalNodes>
        0 -1 61407 -3.4743819851428270e-03</internalNodes>
      <leafValues>
        -8.4574657678604126e-01 4.9276106059551239e-02</leafValues></_>
    <_>
      <internalNodes>
        0 -1 1093626 -3.5781599581241608e-03</internalNodes>
      <leafValues>
        2.5662338733673096e-01 -1.5123412013053894e-01</leafValues></_>
    <_>
      <internalNodes>
        0 -1 931343 -2.4105992633849382e-03</internalNodes>
      <leafValues>
        -7.4309128522872925e-01 4.8338398337364197e-02</leafValues></_>
    <_>
      <internalNodes>
        0 -1 710262 8.9620389044284821e-03</internalNodes>
      <leafValues>
        -1.0363726317882538e-01 3.7006011605262756e-01</leafValues></_>
    <_>
      <internalNodes>
        0 -1 703815 2.8793655801564455e-03</internalNodes>
      <leafValues>
        -1.1172531545162201e-01 2.9677551984786987e-01</leafValues></_>
    <_>
      <internalNodes>
        0 -1 655339 3.1061004847288132e-04</internalNodes>
      <leafValues>
        -1.6337297856807709e-01 2.3627403378486633e-01</leafValues></_>
    <_>
      <internalNodes>
        0 -1 58453 -2.6194709353148937e-03</internalNodes>
      <leafValues>
        -3.8575282692909241e-01 9.5457255840301514e-02</leafValues></_>
    <_>
      <internalNodes>
        0 -1 629279 1.3352693058550358e-03</internalNodes>
      <leafValues>
        -1.4925943315029144e-01 2.7206259965896606e-01</leafValues></_>
    <_>
      <internalNodes>
        0 -1 830305 -2.4168775416910648e-03</internalNodes>
      <leafValues>
        -6.9352483749389648e-01 5.7176895439624786e-02</leafValues></_>
    <_>
      <internalNodes>
        0 -1 421955 4.1248640045523643e-03</internalNodes>
      <leafValues>
        -1.4608545601367950e-01 2.6373037695884705e-01</leafValues></_>
    <_>
      <internalNodes>
        0 -1 1236911 -1.0945717804133892e-03</internalNodes>
      <leafValues>
        -7.2506135702133179e-01 5.0979003310203552e-02</leafValues></_>
    <_>
      <internalNodes>
        0 -1 488536 4.6435084193944931e-02</internalNodes>
      <leafValues>
        4.2747393250465393e-02 -7.1653616428375244e-01</leafValues></_>
    <_>
      <internalNodes>
        0 -1 1170834 5.3678231779485941e-04</internalNodes>
      <leafValues>
        -1.2422829866409302e-01 2.8064924478530884e-01</leafValues></_>
    <_>
      <internalNodes>
        0 -1 793265 1.7198827117681503e-03</internalNodes>
      <leafValues>
        6.5763451159000397e-02 -5.5046671628952026e-01</leafValues></_>
    <_>
      <internalNodes>
        0 -1 61610 2.7124350890517235e-03</internalNodes>
      <leafValues>
        5.3356565535068512e-02 -5.4911583662033081e-01</leafValues></_>
    <_>
      <internalNodes>
        0 -1 1067051 -7.1388803422451019e-02</internalNodes>
      <leafValues>
        -4.4342523813247681e-01 7.4110478162765503e-02</leafValues></_>
    <_>
      <internalNodes>
        0 -1 381544 1.4453178737312555e-03</internalNodes>
      <leafValues>
        -8.3112418651580811e-02 4.0052852034568787e-01</leafValues></_>
    <_>
      <internalNodes>
        0 -1 706690 3.5333214327692986e-04</internalNodes>
      <leafValues>
        -1.0097908228635788e-01 3.3179873228073120e-01</leafValues></_></weakClassifiers></stage13>
</opencv_storage>
