<?xml version="1.0"?>
<opencv_storage>
<stage7>
  <maxWeakCount>27</maxWeakCount>
  <stageThreshold>-9.9304121732711792e-01</stageThreshold>
  <weakClassifiers>
    <_>
      <internalNodes>
        0 -1 832972 -1.6941609978675842e-01</internalNodes>
      <leafValues>
        7.2834891080856323e-01 -7.7022656798362732e-02</leafValues></_>
    <_>
      <internalNodes>
        0 -1 12230 -1.5805583447217941e-02</internalNodes>
      <leafValues>
        3.7030974030494690e-01 -3.1973427534103394e-01</leafValues></_>
    <_>
      <internalNodes>
        0 -1 530733 -5.7311456650495529e-02</internalNodes>
      <leafValues>
        3.4987437725067139e-01 -2.7289870381355286e-01</leafValues></_>
    <_>
      <internalNodes>
        0 -1 1167987 9.2601943761110306e-03</internalNodes>
      <leafValues>
        -3.9965847134590149e-01 2.1601374447345734e-01</leafValues></_>
    <_>
      <internalNodes>
        0 -1 30433 -3.1496856361627579e-02</internalNodes>
      <leafValues>
        2.4543595314025879e-01 -2.9096537828445435e-01</leafValues></_>
    <_>
      <internalNodes>
        0 -1 1103607 -7.6221534982323647e-04</internalNodes>
      <leafValues>
        2.7343481779098511e-01 -2.5398701429367065e-01</leafValues></_>
    <_>
      <internalNodes>
        0 -1 329252 5.6639630347490311e-03</internalNodes>
      <leafValues>
        -1.3284425437450409e-01 4.2913427948951721e-01</leafValues></_>
    <_>
      <internalNodes>
        0 -1 61445 -4.6714786440134048e-03</internalNodes>
      <leafValues>
        -6.2362843751907349e-01 1.2298201769590378e-01</leafValues></_>
    <_>
      <internalNodes>
        0 -1 319760 -4.9100890755653381e-03</internalNodes>
      <leafValues>
        5.2138602733612061e-01 -1.2763462960720062e-01</leafValues></_>
    <_>
      <internalNodes>
        0 -1 61363 6.6946195438504219e-03</internalNodes>
      <leafValues>
        9.6283659338951111e-02 -6.0505586862564087e-01</leafValues></_>
    <_>
      <internalNodes>
        0 -1 433772 2.0883101969957352e-03</internalNodes>
      <leafValues>
        -1.9521433115005493e-01 3.1053718924522400e-01</leafValues></_>
    <_>
      <internalNodes>
        0 -1 1242320 1.3543057721108198e-03</internalNodes>
      <leafValues>
        1.3035535812377930e-01 -4.3613052368164062e-01</leafValues></_>
    <_>
      <internalNodes>
        0 -1 1205500 -4.0957209421321750e-04</internalNodes>
      <leafValues>
        3.2613044977188110e-01 -1.9756150245666504e-01</leafValues></_>
    <_>
      <internalNodes>
        0 -1 862624 3.5375060979276896e-03</internalNodes>
      <leafValues>
        -2.1485145390033722e-01 2.8419777750968933e-01</leafValues></_>
    <_>
      <internalNodes>
        0 -1 983227 -1.8137880833819509e-03</internalNodes>
      <leafValues>
        3.7869349122047424e-01 -1.4295381307601929e-01</leafValues></_>
    <_>
      <internalNodes>
        0 -1 1242151 8.8502466678619385e-04</internalNodes>
      <leafValues>
        1.3039751350879669e-01 -4.2396175861358643e-01</leafValues></_>
    <_>
      <internalNodes>
        0 -1 173917 1.0069066192954779e-03</internalNodes>
      <leafValues>
        6.4553588628768921e-02 -7.7554869651794434e-01</leafValues></_>
    <_>
      <internalNodes>
        0 -1 975309 -1.5767281875014305e-03</internalNodes>
      <leafValues>
        3.6424317955970764e-01 -1.6140003502368927e-01</leafValues></_>
    <_>
      <internalNodes>
        0 -1 974946 -2.4642851203680038e-03</internalNodes>
      <leafValues>
        3.7287908792495728e-01 -1.5166153013706207e-01</leafValues></_>
    <_>
      <internalNodes>
        0 -1 814724 2.7101798914372921e-03</internalNodes>
      <leafValues>
        -9.9807091057300568e-02 5.3743040561676025e-01</leafValues></_>
    <_>
      <internalNodes>
        0 -1 776258 -4.0430007502436638e-03</internalNodes>
      <leafValues>
        3.5165786743164062e-01 -1.5425617992877960e-01</leafValues></_>
    <_>
      <internalNodes>
        0 -1 581919 1.2138934107497334e-03</internalNodes>
      <leafValues>
        -2.1469917893409729e-01 2.5694075226783752e-01</leafValues></_>
    <_>
      <internalNodes>
        0 -1 1241818 5.2047884091734886e-03</internalNodes>
      <leafValues>
        8.9600265026092529e-02 -6.5678054094314575e-01</leafValues></_>
    <_>
      <internalNodes>
        0 -1 628171 4.8446506261825562e-03</internalNodes>
      <leafValues>
        -1.9873709976673126e-01 2.9137805104255676e-01</leafValues></_>
    <_>
      <internalNodes>
        0 -1 189258 -1.4709945768117905e-02</internalNodes>
      <leafValues>
        2.7111783623695374e-01 -2.0043531060218811e-01</leafValues></_>
    <_>
      <internalNodes>
        0 -1 853293 -2.0002841483801603e-03</internalNodes>
      <leafValues>
        3.7764498591423035e-01 -1.4648289978504181e-01</leafValues></_>
    <_>
      <internalNodes>
        0 -1 1098097 4.0349708870053291e-03</internalNodes>
      <leafValues>
        -1.8220710754394531e-01 3.0514532327651978e-01</leafValues></_></weakClassifiers></stage7>
</opencv_storage>
