<?xml version="1.0"?>
<opencv_storage>
<stage1>
  <maxWeakCount>9</maxWeakCount>
  <stageThreshold>-1.0432026386260986e+00</stageThreshold>
  <weakClassifiers>
    <_>
      <internalNodes>
        0 -1 42009 -6.6344365477561951e-02</internalNodes>
      <leafValues>
        8.1007754802703857e-01 -5.7274401187896729e-01</leafValues></_>
    <_>
      <internalNodes>
        0 -1 904542 -3.9836116135120392e-02</internalNodes>
      <leafValues>
        8.3594399690628052e-01 -2.3629620671272278e-01</leafValues></_>
    <_>
      <internalNodes>
        0 -1 579110 5.0690448842942715e-03</internalNodes>
      <leafValues>
        -2.4370707571506500e-01 6.4772629737854004e-01</leafValues></_>
    <_>
      <internalNodes>
        0 -1 980460 8.4018027409911156e-03</internalNodes>
      <leafValues>
        -2.9848220944404602e-01 5.5038291215896606e-01</leafValues></_>
    <_>
      <internalNodes>
        0 -1 1196784 1.0266726836562157e-02</internalNodes>
      <leafValues>
        -3.6375486850738525e-01 4.5805990695953369e-01</leafValues></_>
    <_>
      <internalNodes>
        0 -1 1078596 5.4474268108606339e-03</internalNodes>
      <leafValues>
        -2.6582327485084534e-01 5.7463490962982178e-01</leafValues></_>
    <_>
      <internalNodes>
        0 -1 740224 7.1660196408629417e-03</internalNodes>
      <leafValues>
        -2.1221399307250977e-01 6.6389572620391846e-01</leafValues></_>
    <_>
      <internalNodes>
        0 -1 955659 5.3231082856655121e-03</internalNodes>
      <leafValues>
        -1.6657753288745880e-01 7.0922791957855225e-01</leafValues></_>
    <_>
      <internalNodes>
        0 -1 814253 -1.8557723611593246e-02</internalNodes>
      <leafValues>
        4.7593832015991211e-01 -2.9223182797431946e-01</leafValues></_></weakClassifiers></stage1>
</opencv_storage>
