<?xml version="1.0"?>
<opencv_storage>
<stage15>
  <maxWeakCount>46</maxWeakCount>
  <stageThreshold>-7.6869952678680420e-01</stageThreshold>
  <weakClassifiers>
    <_>
      <internalNodes>
        0 -1 28088 -2.3235359787940979e-01</internalNodes>
      <leafValues>
        5.8989083766937256e-01 1.6323633491992950e-02</leafValues></_>
    <_>
      <internalNodes>
        0 -1 678837 -3.4493616223335266e-01</internalNodes>
      <leafValues>
        2.9476666450500488e-01 -1.9469226896762848e-01</leafValues></_>
    <_>
      <internalNodes>
        0 -1 1158173 5.7830540463328362e-03</internalNodes>
      <leafValues>
        -1.3977688550949097e-01 3.9947369694709778e-01</leafValues></_>
    <_>
      <internalNodes>
        0 -1 1146090 1.6992012970149517e-03</internalNodes>
      <leafValues>
        -1.3541965186595917e-01 4.2238593101501465e-01</leafValues></_>
    <_>
      <internalNodes>
        0 -1 75857 -2.2828388959169388e-02</internalNodes>
      <leafValues>
        3.1686466932296753e-01 -1.3483539223670959e-01</leafValues></_>
    <_>
      <internalNodes>
        0 -1 1191738 8.7920465739443898e-04</internalNodes>
      <leafValues>
        7.5877808034420013e-02 -4.3943181633949280e-01</leafValues></_>
    <_>
      <internalNodes>
        0 -1 1063250 2.3205117322504520e-03</internalNodes>
      <leafValues>
        -1.9604367017745972e-01 2.2018711268901825e-01</leafValues></_>
    <_>
      <internalNodes>
        0 -1 927333 6.3830902799963951e-03</internalNodes>
      <leafValues>
        -1.1713931709527969e-01 3.1517976522445679e-01</leafValues></_>
    <_>
      <internalNodes>
        0 -1 700840 -2.9940210282802582e-02</internalNodes>
      <leafValues>
        2.8304684162139893e-01 -1.2649872899055481e-01</leafValues></_>
    <_>
      <internalNodes>
        0 -1 659221 -2.0956538617610931e-02</internalNodes>
      <leafValues>
        3.2183000445365906e-01 -1.5349467098712921e-01</leafValues></_>
    <_>
      <internalNodes>
        0 -1 531461 7.0813065394759178e-04</internalNodes>
      <leafValues>
        -1.2804512679576874e-01 2.7158275246620178e-01</leafValues></_>
    <_>
      <internalNodes>
        0 -1 314618 1.1709464713931084e-02</internalNodes>
      <leafValues>
        -1.7334197461605072e-01 2.7950030565261841e-01</leafValues></_>
    <_>
      <internalNodes>
        0 -1 425242 -2.5229837046936154e-04</internalNodes>
      <leafValues>
        2.4136996269226074e-01 -1.5624170005321503e-01</leafValues></_>
    <_>
      <internalNodes>
        0 -1 898800 -7.5361594557762146e-02</internalNodes>
      <leafValues>
        4.2575809359550476e-01 -8.0546826124191284e-02</leafValues></_>
    <_>
      <internalNodes>
        0 -1 117495 -4.6261427924036980e-03</internalNodes>
      <leafValues>
        1.8972198665142059e-01 -1.8413698673248291e-01</leafValues></_>
    <_>
      <internalNodes>
        0 -1 531467 2.8726868331432343e-03</internalNodes>
      <leafValues>
        -5.8220375329256058e-02 6.0628157854080200e-01</leafValues></_>
    <_>
      <internalNodes>
        0 -1 511547 1.6125375032424927e-01</internalNodes>
      <leafValues>
        6.4056523144245148e-02 -6.4414918422698975e-01</leafValues></_>
    <_>
      <internalNodes>
        0 -1 445776 1.8483056919649243e-05</internalNodes>
      <leafValues>
        1.4411081373691559e-01 -2.3065273463726044e-01</leafValues></_>
    <_>
      <internalNodes>
        0 -1 698615 2.4168440140783787e-03</internalNodes>
      <leafValues>
        -8.6328789591789246e-02 3.9316302537918091e-01</leafValues></_>
    <_>
      <internalNodes>
        0 -1 1194785 2.1065797656774521e-02</internalNodes>
      <leafValues>
        -7.5909651815891266e-02 4.2474076151847839e-01</leafValues></_>
    <_>
      <internalNodes>
        0 -1 539301 1.4009157195687294e-02</internalNodes>
      <leafValues>
        -1.0174218565225601e-01 3.3849194645881653e-01</leafValues></_>
    <_>
      <internalNodes>
        0 -1 334443 2.9881341382861137e-02</internalNodes>
      <leafValues>
        -1.2043941020965576e-01 2.8900051116943359e-01</leafValues></_>
    <_>
      <internalNodes>
        0 -1 1234621 -3.6018663085997105e-03</internalNodes>
      <leafValues>
        -4.9690949916839600e-01 7.0674717426300049e-02</leafValues></_>
    <_>
      <internalNodes>
        0 -1 419906 -2.0297986338846385e-04</internalNodes>
      <leafValues>
        2.8399249911308289e-01 -1.2356033921241760e-01</leafValues></_>
    <_>
      <internalNodes>
        0 -1 410044 7.1889040991663933e-03</internalNodes>
      <leafValues>
        -8.6112380027770996e-02 3.9607167243957520e-01</leafValues></_>
    <_>
      <internalNodes>
        0 -1 319802 6.2314337119460106e-03</internalNodes>
      <leafValues>
        -1.2508663535118103e-01 2.5978103280067444e-01</leafValues></_>
    <_>
      <internalNodes>
        0 -1 7119 -1.7831085622310638e-01</internalNodes>
      <leafValues>
        -6.3411307334899902e-01 5.7693682610988617e-02</leafValues></_>
    <_>
      <internalNodes>
        0 -1 42998 -4.3297181837260723e-03</internalNodes>
      <leafValues>
        -7.4740439653396606e-01 3.7869263440370560e-02</leafValues></_>
    <_>
      <internalNodes>
        0 -1 300762 -1.3259334489703178e-02</internalNodes>
      <leafValues>
        1.4411783218383789e-01 -2.1893049776554108e-01</leafValues></_>
    <_>
      <internalNodes>
        0 -1 827683 2.3566219955682755e-02</internalNodes>
      <leafValues>
        -8.4639564156532288e-02 4.1708162426948547e-01</leafValues></_>
    <_>
      <internalNodes>
        0 -1 180691 -1.9785958528518677e-01</internalNodes>
      <leafValues>
        -6.4450109004974365e-01 5.6611444801092148e-02</leafValues></_>
    <_>
      <internalNodes>
        0 -1 26816 -4.5785764086758718e-06</internalNodes>
      <leafValues>
        -2.4488572776317596e-01 1.3152842223644257e-01</leafValues></_>
    <_>
      <internalNodes>
        0 -1 301814 3.1731924973428249e-03</internalNodes>
      <leafValues>
        -1.9257496297359467e-01 1.8249814212322235e-01</leafValues></_>
    <_>
      <internalNodes>
        0 -1 1005434 8.1781130284070969e-03</internalNodes>
      <leafValues>
        -1.2147001177072525e-01 3.4074276685714722e-01</leafValues></_>
    <_>
      <internalNodes>
        0 -1 418354 5.2122785709798336e-03</internalNodes>
      <leafValues>
        -9.2450551688671112e-02 3.8042396306991577e-01</leafValues></_>
    <_>
      <internalNodes>
        0 -1 175122 -2.8697461821138859e-03</internalNodes>
      <leafValues>
        -5.9187918901443481e-01 6.3480094075202942e-02</leafValues></_>
    <_>
      <internalNodes>
        0 -1 1227454 8.2757044583559036e-03</internalNodes>
      <leafValues>
        4.5441564172506332e-02 -6.1894494295120239e-01</leafValues></_>
    <_>
      <internalNodes>
        0 -1 1109159 2.2363178140949458e-04</internalNodes>
      <leafValues>
        -1.6494809091091156e-01 2.0109140872955322e-01</leafValues></_>
    <_>
      <internalNodes>
        0 -1 331817 9.7711849957704544e-04</internalNodes>
      <leafValues>
        -9.5285400748252869e-02 3.4033438563346863e-01</leafValues></_>
    <_>
      <internalNodes>
        0 -1 559015 2.1211516112089157e-02</internalNodes>
      <leafValues>
        -7.0247203111648560e-02 4.2832460999488831e-01</leafValues></_>
    <_>
      <internalNodes>
        0 -1 832023 4.3802729123854078e-06</internalNodes>
      <leafValues>
        1.4370016753673553e-01 -2.4699620902538300e-01</leafValues></_>
    <_>
      <internalNodes>
        0 -1 1055918 1.5188036486506462e-03</internalNodes>
      <leafValues>
        -1.4918577671051025e-01 2.1854548156261444e-01</leafValues></_>
    <_>
      <internalNodes>
        0 -1 384313 4.2211366817355156e-03</internalNodes>
      <leafValues>
        -1.5923488140106201e-01 2.2101844847202301e-01</leafValues></_>
    <_>
      <internalNodes>
        0 -1 178501 -4.0464270568918437e-05</internalNodes>
      <leafValues>
        -2.5229406356811523e-01 1.3037812709808350e-01</leafValues></_>
    <_>
      <internalNodes>
        0 -1 446595 2.5531800929456949e-03</internalNodes>
      <leafValues>
        -1.2801767885684967e-01 2.7384856343269348e-01</leafValues></_>
    <_>
      <internalNodes>
        0 -1 366240 -1.3093497604131699e-02</internalNodes>
      <leafValues>
        1.1130984872579575e-01 -3.0602818727493286e-01</leafValues></_></weakClassifiers></stage15>
</opencv_storage>
