<?xml version="1.0"?>
<opencv_storage>
<stage9>
  <maxWeakCount>32</maxWeakCount>
  <stageThreshold>-9.0122032165527344e-01</stageThreshold>
  <weakClassifiers>
    <_>
      <internalNodes>
        0 -1 32446 -2.0893722772598267e-01</internalNodes>
      <leafValues>
        6.3830924034118652e-01 -1.1163153499364853e-01</leafValues></_>
    <_>
      <internalNodes>
        0 -1 767587 -1.6758316755294800e-01</internalNodes>
      <leafValues>
        3.1888005137443542e-01 -3.0336853861808777e-01</leafValues></_>
    <_>
      <internalNodes>
        0 -1 927368 3.5903034731745720e-03</internalNodes>
      <leafValues>
        -2.6196789741516113e-01 3.1433317065238953e-01</leafValues></_>
    <_>
      <internalNodes>
        0 -1 981639 1.1955140158534050e-02</internalNodes>
      <leafValues>
        -1.1673837155103683e-01 4.7393533587455750e-01</leafValues></_>
    <_>
      <internalNodes>
        0 -1 1009129 -2.2958221379667521e-03</internalNodes>
      <leafValues>
        4.4422256946563721e-01 -1.7134113609790802e-01</leafValues></_>
    <_>
      <internalNodes>
        0 -1 1057509 7.3747253045439720e-03</internalNodes>
      <leafValues>
        -1.7773742973804474e-01 3.1459909677505493e-01</leafValues></_>
    <_>
      <internalNodes>
        0 -1 20090 -1.4361791312694550e-02</internalNodes>
      <leafValues>
        2.4412354826927185e-01 -1.9987423717975616e-01</leafValues></_>
    <_>
      <internalNodes>
        0 -1 588932 -1.4112177304923534e-03</internalNodes>
      <leafValues>
        -5.0852733850479126e-01 1.0247123241424561e-01</leafValues></_>
    <_>
      <internalNodes>
        0 -1 23943 -1.4973556995391846e-01</internalNodes>
      <leafValues>
        -6.9587892293930054e-01 5.8360897004604340e-02</leafValues></_>
    <_>
      <internalNodes>
        0 -1 31324 -5.1840092055499554e-03</internalNodes>
      <leafValues>
        -4.7524303197860718e-01 1.0196545720100403e-01</leafValues></_>
    <_>
      <internalNodes>
        0 -1 374051 1.7077439697459340e-03</internalNodes>
      <leafValues>
        -1.8792454898357391e-01 2.7414733171463013e-01</leafValues></_>
    <_>
      <internalNodes>
        0 -1 632399 5.9346714988350868e-04</internalNodes>
      <leafValues>
        1.2291417270898819e-01 -3.8613596558570862e-01</leafValues></_>
    <_>
      <internalNodes>
        0 -1 560880 -1.4882210642099380e-02</internalNodes>
      <leafValues>
        5.2776151895523071e-01 -9.9709063768386841e-02</leafValues></_>
    <_>
      <internalNodes>
        0 -1 661975 -1.5247829724103212e-03</internalNodes>
      <leafValues>
        3.1324490904808044e-01 -1.3266509771347046e-01</leafValues></_>
    <_>
      <internalNodes>
        0 -1 531100 1.6555502079427242e-03</internalNodes>
      <leafValues>
        -1.6816878318786621e-01 2.6862096786499023e-01</leafValues></_>
    <_>
      <internalNodes>
        0 -1 374138 3.3397669903934002e-03</internalNodes>
      <leafValues>
        -1.3701470196247101e-01 3.4343105554580688e-01</leafValues></_>
    <_>
      <internalNodes>
        0 -1 659641 8.0245053395628929e-03</internalNodes>
      <leafValues>
        -1.6171547770500183e-01 3.0188411474227905e-01</leafValues></_>
    <_>
      <internalNodes>
        0 -1 240288 -1.5334357321262360e-01</internalNodes>
      <leafValues>
        2.6160666346549988e-01 -2.1866546571254730e-01</leafValues></_>
    <_>
      <internalNodes>
        0 -1 705726 8.7344925850629807e-04</internalNodes>
      <leafValues>
        -1.6922442615032196e-01 2.7382001280784607e-01</leafValues></_>
    <_>
      <internalNodes>
        0 -1 1239873 -1.0111267329193652e-04</internalNodes>
      <leafValues>
        -2.6560100913047791e-01 1.7270906269550323e-01</leafValues></_>
    <_>
      <internalNodes>
        0 -1 1060122 1.1722566559910774e-03</internalNodes>
      <leafValues>
        -1.3428772985935211e-01 3.2525849342346191e-01</leafValues></_>
    <_>
      <internalNodes>
        0 -1 1170544 2.7234354056417942e-03</internalNodes>
      <leafValues>
        -1.1084397882223129e-01 3.9940431714057922e-01</leafValues></_>
    <_>
      <internalNodes>
        0 -1 1184828 2.2370032966136932e-03</internalNodes>
      <leafValues>
        -1.2978082895278931e-01 3.3380001783370972e-01</leafValues></_>
    <_>
      <internalNodes>
        0 -1 1177798 2.2064372897148132e-03</internalNodes>
      <leafValues>
        1.0601475089788437e-01 -4.7001343965530396e-01</leafValues></_>
    <_>
      <internalNodes>
        0 -1 1125157 3.9299400523304939e-03</internalNodes>
      <leafValues>
        -1.5247459709644318e-01 2.9890179634094238e-01</leafValues></_>
    <_>
      <internalNodes>
        0 -1 235353 -1.1753423139452934e-02</internalNodes>
      <leafValues>
        -6.2341845035552979e-01 7.2318874299526215e-02</leafValues></_>
    <_>
      <internalNodes>
        0 -1 1057837 5.3788129240274429e-02</internalNodes>
      <leafValues>
        4.1521146893501282e-02 -7.9487586021423340e-01</leafValues></_>
    <_>
      <internalNodes>
        0 -1 954000 4.3589342385530472e-03</internalNodes>
      <leafValues>
        -1.3399977982044220e-01 3.6312025785446167e-01</leafValues></_>
    <_>
      <internalNodes>
        0 -1 832406 1.6852786066010594e-03</internalNodes>
      <leafValues>
        7.1421898901462555e-02 -5.7343977689743042e-01</leafValues></_>
    <_>
      <internalNodes>
        0 -1 889724 2.0363621879369020e-03</internalNodes>
      <leafValues>
        -1.5455779433250427e-01 2.7651956677436829e-01</leafValues></_>
    <_>
      <internalNodes>
        0 -1 470012 5.0959512591362000e-03</internalNodes>
      <leafValues>
        -1.5521016716957092e-01 2.6736468076705933e-01</leafValues></_>
    <_>
      <internalNodes>
        0 -1 844594 -4.0169045329093933e-02</internalNodes>
      <leafValues>
        -4.7367262840270996e-01 1.0228572040796280e-01</leafValues></_></weakClassifiers></stage9>
</opencv_storage>
