<?xml version="1.0"?>
<opencv_storage>
<stage5>
  <maxWeakCount>23</maxWeakCount>
  <stageThreshold>-9.9706184864044189e-01</stageThreshold>
  <weakClassifiers>
    <_>
      <internalNodes>
        0 -1 837484 -1.0534549504518509e-01</internalNodes>
      <leafValues>
        7.8530424833297729e-01 -2.2585226595401764e-01</leafValues></_>
    <_>
      <internalNodes>
        0 -1 813116 8.9107185602188110e-02</internalNodes>
      <leafValues>
        -3.2714793086051941e-01 4.9224501848220825e-01</leafValues></_>
    <_>
      <internalNodes>
        0 -1 15064 -2.7974268421530724e-02</internalNodes>
      <leafValues>
        3.2689726352691650e-01 -2.6445162296295166e-01</leafValues></_>
    <_>
      <internalNodes>
        0 -1 926377 1.1520659551024437e-02</internalNodes>
      <leafValues>
        -2.1816083788871765e-01 3.5802659392356873e-01</leafValues></_>
    <_>
      <internalNodes>
        0 -1 452744 2.1671713888645172e-01</internalNodes>
      <leafValues>
        5.1852874457836151e-02 -7.8333508968353271e-01</leafValues></_>
    <_>
      <internalNodes>
        0 -1 1170162 -7.5973137281835079e-03</internalNodes>
      <leafValues>
        3.9027532935142517e-01 -1.7851458489894867e-01</leafValues></_>
    <_>
      <internalNodes>
        0 -1 121018 -2.7162078768014908e-03</internalNodes>
      <leafValues>
        -6.1097329854965210e-01 1.1107426136732101e-01</leafValues></_>
    <_>
      <internalNodes>
        0 -1 1071679 9.3685053288936615e-03</internalNodes>
      <leafValues>
        -1.8615829944610596e-01 3.7924256920814514e-01</leafValues></_>
    <_>
      <internalNodes>
        0 -1 930551 3.6230506375432014e-03</internalNodes>
      <leafValues>
        1.6216203570365906e-01 -5.0139993429183960e-01</leafValues></_>
    <_>
      <internalNodes>
        0 -1 379041 -5.1543596200644970e-03</internalNodes>
      <leafValues>
        4.6242117881774902e-01 -1.7246891558170319e-01</leafValues></_>
    <_>
      <internalNodes>
        0 -1 970817 5.6635206565260887e-03</internalNodes>
      <leafValues>
        -1.2814967334270477e-01 4.8046684265136719e-01</leafValues></_>
    <_>
      <internalNodes>
        0 -1 51619 -4.5464537106454372e-03</internalNodes>
      <leafValues>
        -5.5224305391311646e-01 1.1872286349534988e-01</leafValues></_>
    <_>
      <internalNodes>
        0 -1 620099 1.3582868501543999e-02</internalNodes>
      <leafValues>
        -1.0053647309541702e-01 5.7936346530914307e-01</leafValues></_>
    <_>
      <internalNodes>
        0 -1 1184383 -1.2802302837371826e-02</internalNodes>
      <leafValues>
        5.6161761283874512e-01 -9.7736939787864685e-02</leafValues></_>
    <_>
      <internalNodes>
        0 -1 114891 -1.6870475374162197e-03</internalNodes>
      <leafValues>
        -7.7099794149398804e-01 8.4006518125534058e-02</leafValues></_>
    <_>
      <internalNodes>
        0 -1 416111 6.3551170751452446e-04</internalNodes>
      <leafValues>
        -1.9369687139987946e-01 3.1858587265014648e-01</leafValues></_>
    <_>
      <internalNodes>
        0 -1 1163259 9.9749630317091942e-04</internalNodes>
      <leafValues>
        1.2649986147880554e-01 -5.1249748468399048e-01</leafValues></_>
    <_>
      <internalNodes>
        0 -1 921504 -1.2750614434480667e-02</internalNodes>
      <leafValues>
        4.3691167235374451e-01 -1.3679447770118713e-01</leafValues></_>
    <_>
      <internalNodes>
        0 -1 664224 2.0526568405330181e-03</internalNodes>
      <leafValues>
        -1.6431805491447449e-01 3.6254355311393738e-01</leafValues></_>
    <_>
      <internalNodes>
        0 -1 267529 5.5283005349338055e-03</internalNodes>
      <leafValues>
        -1.5960335731506348e-01 3.9232945442199707e-01</leafValues></_>
    <_>
      <internalNodes>
        0 -1 397662 -7.2409346699714661e-02</internalNodes>
      <leafValues>
        4.8069766163825989e-01 -1.2853826582431793e-01</leafValues></_>
    <_>
      <internalNodes>
        0 -1 805971 -8.8045885786414146e-03</internalNodes>
      <leafValues>
        4.3144685029983521e-01 -1.3598851859569550e-01</leafValues></_>
    <_>
      <internalNodes>
        0 -1 1213453 9.6306460909545422e-04</internalNodes>
      <leafValues>
        1.0252132266759872e-01 -6.6245418787002563e-01</leafValues></_></weakClassifiers></stage5>
</opencv_storage>
