<?xml version="1.0"?>
<opencv_storage>
<stage0>
  <maxWeakCount>9</maxWeakCount>
  <stageThreshold>-1.0194281339645386e+00</stageThreshold>
  <weakClassifiers>
    <_>
      <internalNodes>
        0 -1 38418 -1.1659345775842667e-01</internalNodes>
      <leafValues>
        9.1346156597137451e-01 -5.1643192768096924e-01</leafValues></_>
    <_>
      <internalNodes>
        0 -1 935942 -1.4727392233908176e-02</internalNodes>
      <leafValues>
        8.1458687782287598e-01 -2.8077557682991028e-01</leafValues></_>
    <_>
      <internalNodes>
        0 -1 1172402 1.8426734954118729e-02</internalNodes>
      <leafValues>
        -1.9230601191520691e-01 7.0563882589340210e-01</leafValues></_>
    <_>
      <internalNodes>
        0 -1 703859 -3.9260894060134888e-02</internalNodes>
      <leafValues>
        7.0676511526107788e-01 -2.0471861958503723e-01</leafValues></_>
    <_>
      <internalNodes>
        0 -1 1032098 9.5178950577974319e-03</internalNodes>
      <leafValues>
        -2.1889027953147888e-01 5.5713891983032227e-01</leafValues></_>
    <_>
      <internalNodes>
        0 -1 581273 3.5496234893798828e-02</internalNodes>
      <leafValues>
        -1.8608480691909790e-01 7.1756881475448608e-01</leafValues></_>
    <_>
      <internalNodes>
        0 -1 1240883 1.5797617379575968e-03</internalNodes>
      <leafValues>
        1.9352728128433228e-01 -7.5400930643081665e-01</leafValues></_>
    <_>
      <internalNodes>
        0 -1 802 9.5270812744274735e-04</internalNodes>
      <leafValues>
        1.3230016827583313e-01 -6.9723361730575562e-01</leafValues></_>
    <_>
      <internalNodes>
        0 -1 842543 -4.0749181061983109e-02</internalNodes>
      <leafValues>
        2.5395166873931885e-01 -4.4908225536346436e-01</leafValues></_></weakClassifiers></stage0>
</opencv_storage>
